digraph Tree {
node [shape=box, style="filled, rounded", color="black", fontname=helvetica] ;
edge [fontname=helvetica] ;
0 [label="Glucose <= 123.5\nentropy = 0.95\nsamples = 496\nvalue = [315, 181]\nclass = 0", fillcolor="#f4c9ab"] ;
1 [label="BMI <= 26.35\nentropy = 0.72\nsamples = 283\nvalue = [226, 57]\nclass = 0", fillcolor="#eca16b"] ;
0 -> 1 [labeldistance=2.5, labelangle=45, headlabel="True"] ;
3 [label="entropy = 0.1\nsamples = 81\nvalue = [80, 1]\nclass = 0", fillcolor="#e5833b"] ;
1 -> 3 ;
4 [label="Age <= 25.5\nentropy = 0.85\nsamples = 202\nvalue = [146, 56]\nclass = 0", fillcolor="#efb185"] ;
1 -> 4 ;
7 [label="Glucose <= 94.0\nentropy = 0.48\nsamples = 78\nvalue = [70, 8]\nclass = 0", fillcolor="#e88f50"] ;
4 -> 7 ;
13 [label="entropy = 0.0\nsamples = 38\nvalue = [38, 0]\nclass = 0", fillcolor="#e58139"] ;
7 -> 13 ;
14 [label="BMI <= 31.3\nentropy = 0.72\nsamples = 40\nvalue = [32, 8]\nclass = 0", fillcolor="#eca06a"] ;
7 -> 14 ;
17 [label="entropy = 0.0\nsamples = 13\nvalue = [13, 0]\nclass = 0", fillcolor="#e58139"] ;
14 -> 17 ;
18 [label="entropy = 0.88\nsamples = 27\nvalue = [19, 8]\nclass = 0", fillcolor="#f0b68c"] ;
14 -> 18 ;
8 [label="Glucose <= 99.5\nentropy = 0.96\nsamples = 124\nvalue = [76, 48]\nclass = 0", fillcolor="#f5d1b6"] ;
4 -> 8 ;
19 [label="BloodPressure <= 69.0\nentropy = 0.75\nsamples = 37\nvalue = [29, 8]\nclass = 0", fillcolor="#eca470"] ;
8 -> 19 ;
39 [label="entropy = 0.98\nsamples = 12\nvalue = [7, 5]\nclass = 0", fillcolor="#f8dbc6"] ;
19 -> 39 ;
40 [label="entropy = 0.53\nsamples = 25\nvalue = [22, 3]\nclass = 0", fillcolor="#e99254"] ;
19 -> 40 ;
20 [label="Pregnancies <= 6.5\nentropy = 1.0\nsamples = 87\nvalue = [47, 40]\nclass = 0", fillcolor="#fbece2"] ;
8 -> 20 ;
21 [label="BMI <= 35.15\nentropy = 0.95\nsamples = 62\nvalue = [39, 23]\nclass = 0", fillcolor="#f4cbae"] ;
20 -> 21 ;
29 [label="Age <= 34.5\nentropy = 1.0\nsamples = 34\nvalue = [17, 17]\nclass = 0", fillcolor="#ffffff"] ;
21 -> 29 ;
35 [label="Insulin <= 85.5\nentropy = 0.93\nsamples = 20\nvalue = [13, 7]\nclass = 0", fillcolor="#f3c5a4"] ;
29 -> 35 ;
37 [label="entropy = 0.47\nsamples = 10\nvalue = [9, 1]\nclass = 0", fillcolor="#e88f4f"] ;
35 -> 37 ;
38 [label="entropy = 0.97\nsamples = 10\nvalue = [4, 6]\nclass = 1", fillcolor="#bddef6"] ;
35 -> 38 ;
36 [label="entropy = 0.86\nsamples = 14\nvalue = [4, 10]\nclass = 1", fillcolor="#88c4ef"] ;
29 -> 36 ;
30 [label="Glucose <= 110.5\nentropy = 0.75\nsamples = 28\nvalue = [22, 6]\nclass = 0", fillcolor="#eca36f"] ;
21 -> 30 ;
31 [label="entropy = 0.0\nsamples = 14\nvalue = [14, 0]\nclass = 0", fillcolor="#e58139"] ;
30 -> 31 ;
32 [label="entropy = 0.99\nsamples = 14\nvalue = [8, 6]\nclass = 0", fillcolor="#f8e0ce"] ;
30 -> 32 ;
22 [label="Age <= 39.0\nentropy = 0.9\nsamples = 25\nvalue = [8, 17]\nclass = 1", fillcolor="#96cbf1"] ;
20 -> 22 ;
23 [label="entropy = 0.41\nsamples = 12\nvalue = [1, 11]\nclass = 1", fillcolor="#4ba6e7"] ;
22 -> 23 ;
24 [label="entropy = 1.0\nsamples = 13\nvalue = [7, 6]\nclass = 0", fillcolor="#fbede3"] ;
22 -> 24 ;
2 [label="BMI <= 29.95\nentropy = 0.98\nsamples = 213\nvalue = [89, 124]\nclass = 1", fillcolor="#c7e3f8"] ;
0 -> 2 [labeldistance=2.5, labelangle=-45, headlabel="False"] ;
5 [label="Pregnancies <= 1.5\nentropy = 0.87\nsamples = 62\nvalue = [44, 18]\nclass = 0", fillcolor="#f0b58a"] ;
2 -> 5 ;
15 [label="entropy = 0.32\nsamples = 17\nvalue = [16, 1]\nclass = 0", fillcolor="#e78945"] ;
5 -> 15 ;
16 [label="BloodPressure <= 73.0\nentropy = 0.96\nsamples = 45\nvalue = [28, 17]\nclass = 0", fillcolor="#f5ceb1"] ;
5 -> 16 ;
25 [label="entropy = 0.99\nsamples = 21\nvalue = [9, 12]\nclass = 1", fillcolor="#cee6f8"] ;
16 -> 25 ;
26 [label="Glucose <= 145.5\nentropy = 0.74\nsamples = 24\nvalue = [19, 5]\nclass = 0", fillcolor="#eca26d"] ;
16 -> 26 ;
43 [label="entropy = 0.37\nsamples = 14\nvalue = [13, 1]\nclass = 0", fillcolor="#e78b48"] ;
26 -> 43 ;
44 [label="entropy = 0.97\nsamples = 10\nvalue = [6, 4]\nclass = 0", fillcolor="#f6d5bd"] ;
26 -> 44 ;
6 [label="Glucose <= 155.5\nentropy = 0.88\nsamples = 151\nvalue = [45, 106]\nclass = 1", fillcolor="#8dc7f0"] ;
2 -> 6 ;
9 [label="BloodPressure <= 59.0\nentropy = 0.98\nsamples = 88\nvalue = [37, 51]\nclass = 1", fillcolor="#c9e4f8"] ;
6 -> 9 ;
11 [label="entropy = 0.0\nsamples = 11\nvalue = [0, 11]\nclass = 1", fillcolor="#399de5"] ;
9 -> 11 ;
12 [label="Age <= 35.5\nentropy = 1.0\nsamples = 77\nvalue = [37, 40]\nclass = 1", fillcolor="#f0f8fd"] ;
9 -> 12 ;
27 [label="Insulin <= 210.0\nentropy = 0.97\nsamples = 43\nvalue = [26, 17]\nclass = 0", fillcolor="#f6d3ba"] ;
12 -> 27 ;
41 [label="entropy = 1.0\nsamples = 31\nvalue = [16, 15]\nclass = 0", fillcolor="#fdf7f3"] ;
27 -> 41 ;
42 [label="entropy = 0.65\nsamples = 12\nvalue = [10, 2]\nclass = 0", fillcolor="#ea9a61"] ;
27 -> 42 ;
28 [label="entropy = 0.91\nsamples = 34\nvalue = [11, 23]\nclass = 1", fillcolor="#98ccf1"] ;
12 -> 28 ;
10 [label="Glucose <= 164.5\nentropy = 0.55\nsamples = 63\nvalue = [8, 55]\nclass = 1", fillcolor="#56abe9"] ;
6 -> 10 ;
33 [label="entropy = 0.0\nsamples = 16\nvalue = [0, 16]\nclass = 1", fillcolor="#399de5"] ;
10 -> 33 ;
34 [label="DiabetesPedigreeFunction <= 0.3\nentropy = 0.66\nsamples = 47\nvalue = [8, 39]\nclass = 1", fillcolor="#62b1ea"] ;
10 -> 34 ;
45 [label="entropy = 0.92\nsamples = 15\nvalue = [5, 10]\nclass = 1", fillcolor="#9ccef2"] ;
34 -> 45 ;
46 [label="Insulin <= 257.0\nentropy = 0.45\nsamples = 32\nvalue = [3, 29]\nclass = 1", fillcolor="#4da7e8"] ;
34 -> 46 ;
47 [label="entropy = 0.0\nsamples = 21\nvalue = [0, 21]\nclass = 1", fillcolor="#399de5"] ;
46 -> 47 ;
48 [label="entropy = 0.85\nsamples = 11\nvalue = [3, 8]\nclass = 1", fillcolor="#83c2ef"] ;
46 -> 48 ;
}